<?xml version="1.0"?>
<opencv_storage>
<cascade>
  <stageType>BOOST</stageType>
  <featureType>HAAR</featureType>
  <height>24</height>
  <width>24</width>
  <stageParams>
    <boostType>GAB</boostType>
    <minHitRate>9.9500000476837158e-01</minHitRate>
    <maxFalseAlarm>5.0000000000000000e-01</maxFalseAlarm>
    <weightTrimRate>9.4999998807907104e-01</weightTrimRate>
    <maxDepth>1</maxDepth>
    <maxWeakCount>100</maxWeakCount></stageParams>
  <featureParams>
    <maxCatCount>0</maxCatCount>
    <featSize>1</featSize>
    <mode>BASIC</mode></featureParams>
  <stageNum>17</stageNum>
  <stages>
    <!-- stage 0 -->
    <_>
      <maxWeakCount>7</maxWeakCount>
      <stageThreshold>-1.9533224105834961e+00</stageThreshold>
      <weakClassifiers>
        <_>
          <internalNodes>
            0 -1 84 -5.6954633444547653e-02</internalNodes>
          <leafValues>
            3.4177213907241821e-01 -8.5700666904449463e-01</leafValues></_>
        <_>
          <internalNodes>
            0 -1 46 1.8477030098438263e-02</internalNodes>
          <leafValues>
            -7.3950296640396118e-01 1.8920406699180603e-01</leafValues></_>
        <_>
          <internalNodes>
            0 -1 6 -2.2053744643926620e-02</internalNodes>
          <leafValues>
            6.5848302841186523e-01 -3.8936704397201538e-01</leafValues></_>
        <_>
          <internalNodes>
            0 -1 29 -2.0709533244371414e-02</internalNodes>
          <leafValues>
            -8.3148664236068726e-01 2.6245018839836121e-01</leafValues></_>
        <_>
          <internalNodes>
            0 -1 83 1.9492346793413162e-02</internalNodes>
          <leafValues>
            -2.2842442989349365e-01 7.1061664819717407e-01</leafValues></_>
        <_>
          <internalNodes>
            0 -1 112 -1.5454487584065646e-04</internalNodes>
          <leafValues>
            3.1623837351799011e-01 -5.7304948568344116e-01</leafValues></_>
        <_>
          <internalNodes>
            0 -1 132 -2.5265237316489220e-02</internalNodes>
          <leafValues>
            5.8187460899353027e-01 -3.1770989298820496e-01</leafValues></_></weakClassifiers></_>
    <!-- stage 1 -->
    <_>
      <maxWeakCount>6</maxWeakCount>
      <stageThreshold>-2.1612541675567627e+00</stageThreshold>
      <weakClassifiers>
        <_>
          <internalNodes>
            0 -1 5 -6.6863283514976501e-02</internalNodes>
          <leafValues>
            2.0000000298023224e-01 -8.6770427227020264e-01</leafValues></_>
        <_>
          <internalNodes>
            0 -1 22 3.4526031464338303e-02</internalNodes>
          <leafValues>
            -5.3544765710830688e-01 7.8679358959197998e-01</leafValues></_>
        <_>
          <internalNodes>
            0 -1 124 -2.7131462469696999e-02</internalNodes>
          <leafValues>
            7.1271169185638428e-01 -3.3468717336654663e-01</leafValues></_>
        <_>
          <internalNodes>
            0 -1 33 3.0640303157269955e-03</internalNodes>
          <leafValues>
            -4.4653931260108948e-01 4.8528611660003662e-01</leafValues></_>
        <_>
          <internalNodes>
            0 -1 15 9.1885663568973541e-03</internalNodes>
          <leafValues>
            -5.0325256586074829e-01 4.7202169895172119e-01</leafValues></_>
        <_>
          <internalNodes>
            0 -1 100 6.6970352781936526e-04</internalNodes>
          <leafValues>
            -4.4889736175537109e-01 4.5555850863456726e-01</leafValues></_></weakClassifiers></_>
    <!-- stage 2 -->
    <_>
      <maxWeakCount>7</maxWeakCount>
      <stageThreshold>-1.6514621973037720e+00</stageThreshold>
      <weakClassifiers>
        <_>
          <internalNodes>
            0 -1 117 -4.3151479214429855e-02</internalNodes>
          <leafValues>
            1.0447761416435242e-01 -8.2846373319625854e-01</leafValues></_>
        <_>
          <internalNodes>
            0 -1 70 3.6852373741567135e-03</internalNodes>
          <leafValues>
            -5.8012479543685913e-01 2.5213465094566345e-01</leafValues></_>
        <_>
          <internalNodes>
            0 -1 19 4.7814413905143738e-02</internalNodes>
          <leafValues>
            -3.1955462694168091e-01 6.5139120817184448e-01</leafValues></_>
        <_>
          <internalNodes>
            0 -1 88 1.6918858513236046e-02</internalNodes>
          <leafValues>
            2.0238059759140015e-01 -9.7778189182281494e-01</leafValues></_>
        <_>
          <internalNodes>
            0 -1 92 2.0100520923733711e-03</internalNodes>
          <leafValues>
            -4.8466128110885620e-01 3.8568389415740967e-01</leafValues></_>
        <_>
          <internalNodes>
            0 -1 103 1.1159253306686878e-02</internalNodes>
          <leafValues>
            -2.8228408098220825e-01 6.6523420810699463e-01</leafValues></_>
        <_>
          <internalNodes>
            0 -1 76 2.1197404712438583e-02</internalNodes>
          <leafValues>
            -2.2909943759441376e-01 6.4839357137680054e-01</leafValues></_></weakClassifiers></_>
    <!-- stage 3 -->
    <_>
      <maxWeakCount>7</maxWeakCount>
      <stageThreshold>-2.0007729530334473e+00</stageThreshold>
      <weakClassifiers>
        <_>
          <internalNodes>
            0 -1 1 -1.2978935241699219e-01</internalNodes>
          <leafValues>
            3.3333334326744080e-01 -8.2222223281860352e-01</leafValues></_>
        <_>
          <internalNodes>
            0 -1 119 2.7047820389270782e-02</internalNodes>
          <leafValues>
            -5.9802240133285522e-01 3.0137252807617188e-01</leafValues></_>
        <_>
          <internalNodes>
            0 -1 59 2.2508453577756882e-02</internalNodes>
          <leafValues>
            -4.8283588886260986e-01 2.9776161909103394e-01</leafValues></_>
        <_>
          <internalNodes>
            0 -1 49 -4.3339719995856285e-03</internalNodes>
          <leafValues>
            3.5258787870407104e-01 -4.2240116000175476e-01</leafValues></_>
        <_>
          <internalNodes>
            0 -1 63 -4.3789492920041084e-03</internalNodes>
          <leafValues>
            -1. 1.3966065645217896e-01</leafValues></_>
        <_>
          <internalNodes>
            0 -1 4 -5.3232982754707336e-02</internalNodes>
          <leafValues>
            5.1929730176925659e-01 -2.6628798246383667e-01</leafValues></_>
        <_>
          <internalNodes>
            0 -1 25 8.3012655377388000e-03</internalNodes>
          <leafValues>
            -3.2926151156425476e-01 4.0376761555671692e-01</leafValues></_></weakClassifiers></_>
    <!-- stage 4 -->
    <_>
      <maxWeakCount>8</maxWeakCount>
      <stageThreshold>-1.5627304315567017e+00</stageThreshold>
      <weakClassifiers>
        <_>
          <internalNodes>
            0 -1 107 -5.1696874201297760e-02</internalNodes>
          <leafValues>
            2.9411764815449715e-02 -8.2452827692031860e-01</leafValues></_>
        <_>
          <internalNodes>
            0 -1 77 -2.1700002253055573e-01</internalNodes>
          <leafValues>
            4.4055259227752686e-01 -4.4326242804527283e-01</leafValues></_>
        <_>
          <internalNodes>
            0 -1 82 1.5052661765366793e-03</internalNodes>
          <leafValues>
            1.4313115179538727e-01 -8.4743583202362061e-01</leafValues></_>
        <_>
          <internalNodes>
            0 -1 2 -8.9107185602188110e-02</internalNodes>
          <leafValues>
            7.3761057853698730e-01 -1.9623896479606628e-01</leafValues></_>
        <_>
          <internalNodes>
            0 -1 68 -1.7823729664087296e-02</internalNodes>
          <leafValues>
            5.0009226799011230e-01 -2.1609380841255188e-01</leafValues></_>
        <_>
          <internalNodes>
            0 -1 135 -1.4707345981150866e-03</internalNodes>
          <leafValues>
            -7.2451293468475342e-01 1.6421703994274139e-01</leafValues></_>
        <_>
          <internalNodes>
            0 -1 30 5.2259378135204315e-03</internalNodes>
          <leafValues>
            -2.5089907646179199e-01 5.0679653882980347e-01</leafValues></_>
        <_>
          <internalNodes>
            0 -1 86 -1.1429961305111647e-03</internalNodes>
          <leafValues>
            -6.5524214506149292e-01 1.9513863325119019e-01</leafValues></_></weakClassifiers></_>
    <!-- stage 5 -->
    <_>
      <maxWeakCount>8</maxWeakCount>
      <stageThreshold>-1.5001120567321777e+00</stageThreshold>
      <weakClassifiers>
        <_>
          <internalNodes>
            0 -1 85 6.2876351177692413e-02</internalNodes>
          <leafValues>
            -8.3524906635284424e-01 1.7471143106806064e-17</leafValues></_>
        <_>
          <internalNodes>
            0 -1 57 7.5965136289596558e-02</internalNodes>
          <leafValues>
            -5.1126617193222046e-01 3.8894096016883850e-01</leafValues></_>
        <_>
          <internalNodes>
            0 -1 87 -5.1284469664096832e-02</internalNodes>
          <leafValues>
            -7.9051482677459717e-01 1.4501163363456726e-01</leafValues></_>
        <_>
          <internalNodes>
            0 -1 127 9.3156257644295692e-03</internalNodes>
          <leafValues>
            -3.1113412976264954e-01 4.1025730967521667e-01</leafValues></_>
        <_>
          <internalNodes>
            0 -1 10 1.1077444069087505e-03</internalNodes>
          <leafValues>
            1.3578560948371887e-01 -7.6036804914474487e-01</leafValues></_>
        <_>
          <internalNodes>
            0 -1 40 -3.6478852853178978e-03</internalNodes>
          <leafValues>
            1.6547256708145142e-01 -6.4821547269821167e-01</leafValues></_>
        <_>
          <internalNodes>
            0 -1 101 -1.6280007548630238e-03</internalNodes>
          <leafValues>
            -9.4899016618728638e-01 1.1468700319528580e-01</leafValues></_>
        <_>
          <internalNodes>
            0 -1 17 -3.8763724267482758e-02</internalNodes>
          <leafValues>
            6.7641913890838623e-01 -1.8928453326225281e-01</leafValues></_></weakClassifiers></_>
    <!-- stage 6 -->
    <_>
      <maxWeakCount>9</maxWeakCount>
      <stageThreshold>-1.6193715333938599e+00</stageThreshold>
      <weakClassifiers>
        <_>
          <internalNodes>
            0 -1 109 -9.0204857289791107e-02</internalNodes>
          <leafValues>
            -9.8039217293262482e-02 -8.4015595912933350e-01</leafValues></_>
        <_>
          <internalNodes>
            0 -1 35 9.7745861858129501e-03</internalNodes>
          <leafValues>
            -4.9221152067184448e-01 2.6666352152824402e-01</leafValues></_>
        <_>
          <internalNodes>
            0 -1 104 -3.2828622497618198e-03</internalNodes>
          <leafValues>
            -9.3290656805038452e-01 9.5582731068134308e-02</leafValues></_>
        <_>
          <internalNodes>
            0 -1 21 -6.2942663207650185e-03</internalNodes>
          <leafValues>
            6.2690347433090210e-01 -1.6697692871093750e-01</leafValues></_>
        <_>
          <internalNodes>
            0 -1 27 -1.5476992353796959e-02</internalNodes>
          <leafValues>
            5.7766050100326538e-01 -1.9628518819808960e-01</leafValues></_>
        <_>
          <internalNodes>
            0 -1 64 2.3973220959305763e-02</internalNodes>
          <leafValues>
            -2.8751289844512939e-01 4.7129973769187927e-01</leafValues></_>
        <_>
          <internalNodes>
            0 -1 65 3.6953978240489960e-02</internalNodes>
          <leafValues>
            -2.9650205373764038e-01 3.8741543889045715e-01</leafValues></_>
        <_>
          <internalNodes>
            0 -1 141 2.8392425156198442e-04</internalNodes>
          <leafValues>
            1.8238177895545959e-01 -6.7369073629379272e-01</leafValues></_>
        <_>
          <internalNodes>
            0 -1 133 5.5447127670049667e-03</internalNodes>
          <leafValues>
            -2.0441146194934845e-01 6.2937462329864502e-01</leafValues></_></weakClassifiers></_>
    <!-- stage 7 -->
    <_>
      <maxWeakCount>6</maxWeakCount>
      <stageThreshold>-1.5056526660919189e+00</stageThreshold>
      <weakClassifiers>
        <_>
          <internalNodes>
            0 -1 123 1.0586686432361603e-01</internalNodes>
          <leafValues>
            -8.2633054256439209e-01 2.2807016968727112e-01</leafValues></_>
        <_>
          <internalNodes>
            0 -1 23 4.7743618488311768e-02</internalNodes>
          <leafValues>
            -5.0925189256668091e-01 3.3565238118171692e-01</leafValues></_>
        <_>
          <internalNodes>
            0 -1 3 -1.1549745500087738e-01</internalNodes>
          <leafValues>
            5.6672900915145874e-01 -2.9087427258491516e-01</leafValues></_>
        <_>
          <internalNodes>
            0 -1 39 2.9167658649384975e-03</internalNodes>
          <leafValues>
            -4.1173991560935974e-01 3.0095508694648743e-01</leafValues></_>
        <_>
          <internalNodes>
            0 -1 136 -1.9905730150640011e-03</internalNodes>
          <leafValues>
            -8.9467936754226685e-01 1.3558702170848846e-01</leafValues></_>
        <_>
          <internalNodes>
            0 -1 71 3.6180641036480665e-03</internalNodes>
          <leafValues>
            -3.1573805212974548e-01 3.5011151432991028e-01</leafValues></_></weakClassifiers></_>
    <!-- stage 8 -->
    <_>
      <maxWeakCount>9</maxWeakCount>
      <stageThreshold>-1.4358980655670166e+00</stageThreshold>
      <weakClassifiers>
        <_>
          <internalNodes>
            0 -1 28 -2.7719937264919281e-02</internalNodes>
          <leafValues>
            -1.7021276056766510e-01 -8.2785302400588989e-01</leafValues></_>
        <_>
          <internalNodes>
            0 -1 122 -5.1115240901708603e-02</internalNodes>
          <leafValues>
            4.8546352982521057e-01 -4.2869204282760620e-01</leafValues></_>
        <_>
          <internalNodes>
            0 -1 12 -2.3229882935993373e-04</internalNodes>
          <leafValues>
            -5.9000903367996216e-01 1.5972386300563812e-01</leafValues></_>
        <_>
          <internalNodes>
            0 -1 45 2.7278423309326172e-02</internalNodes>
          <leafValues>
            9.5089130103588104e-02 -8.7887108325958252e-01</leafValues></_>
        <_>
          <internalNodes>
            0 -1 74 1.8552584806457162e-03</internalNodes>
          <leafValues>
            1.1070069670677185e-01 -9.5831751823425293e-01</leafValues></_>
        <_>
          <internalNodes>
            0 -1 66 -5.2381539717316628e-03</internalNodes>
          <leafValues>
            3.5464286804199219e-01 -3.1433945894241333e-01</leafValues></_>
        <_>
          <internalNodes>
            0 -1 8 4.8211375251412392e-03</internalNodes>
          <leafValues>
            1.1650333553552628e-01 -8.5543721914291382e-01</leafValues></_>
        <_>
          <internalNodes>
            0 -1 130 -1.7598087652004324e-05</internalNodes>
          <leafValues>
            2.3803526163101196e-01 -3.8526356220245361e-01</leafValues></_>
        <_>
          <internalNodes>
            0 -1 138 1.0811935644596815e-03</internalNodes>
          <leafValues>
            1.6948555409908295e-01 -5.8506584167480469e-01</leafValues></_></weakClassifiers></_>
    <!-- stage 9 -->
    <_>
      <maxWeakCount>9</maxWeakCount>
      <stageThreshold>-1.3782823085784912e+00</stageThreshold>
      <weakClassifiers>
        <_>
          <internalNodes>
            0 -1 42 -3.9646711200475693e-02</internalNodes>
          <leafValues>
            -1.8446601927280426e-01 -8.3219510316848755e-01</leafValues></_>
        <_>
          <internalNodes>
            0 -1 71 3.9462679997086525e-03</internalNodes>
          <leafValues>
            -5.4141706228256226e-01 8.7923206388950348e-02</leafValues></_>
        <_>
          <internalNodes>
            0 -1 48 -1.9583337008953094e-02</internalNodes>
          <leafValues>
            3.5382416844367981e-01 -2.9163399338722229e-01</leafValues></_>
        <_>
          <internalNodes>
            0 -1 75 -1.3283935841172934e-03</internalNodes>
          <leafValues>
            -6.7677414417266846e-01 1.5379659831523895e-01</leafValues></_>
        <_>
          <internalNodes>
            0 -1 99 -4.5764725655317307e-04</internalNodes>
          <leafValues>
            3.1742760539054871e-01 -3.3404365181922913e-01</leafValues></_>
        <_>
          <internalNodes>
            0 -1 32 -2.1250147838145494e-03</internalNodes>
          <leafValues>
            -9.7965532541275024e-01 8.7150052189826965e-02</leafValues></_>
        <_>
          <internalNodes>
            0 -1 24 -5.7587021728977561e-04</internalNodes>
          <leafValues>
            -5.2474236488342285e-01 1.6596350073814392e-01</leafValues></_>
        <_>
          <internalNodes>
            0 -1 11 -3.3594168722629547e-02</internalNodes>
          <leafValues>
            6.5051871538162231e-01 -1.5770375728607178e-01</leafValues></_>
        <_>
          <internalNodes>
            0 -1 47 9.1611789539456367e-03</internalNodes>
          <leafValues>
            -2.1229140460491180e-01 4.7721460461616516e-01</leafValues></_></weakClassifiers></_>
    <!-- stage 10 -->
    <_>
      <maxWeakCount>8</maxWeakCount>
      <stageThreshold>-1.5672370195388794e+00</stageThreshold>
      <weakClassifiers>
        <_>
          <internalNodes>
            0 -1 37 1.5337662771344185e-02</internalNodes>
          <leafValues>
            -8.1851851940155029e-01 2.5000000000000000e-01</leafValues></_>
        <_>
          <internalNodes>
            0 -1 67 -3.5063610412180424e-03</internalNodes>
          <leafValues>
            1.9302091002464294e-01 -5.6362640857696533e-01</leafValues></_>
        <_>
          <internalNodes>
            0 -1 97 2.4210374249378219e-05</internalNodes>
          <leafValues>
            -3.6988979578018188e-01 3.3936074376106262e-01</leafValues></_>
        <_>
          <internalNodes>
            0 -1 95 1.2192311696708202e-02</internalNodes>
          <leafValues>
            -3.5218390822410583e-01 3.9730006456375122e-01</leafValues></_>
        <_>
          <internalNodes>
            0 -1 43 1.5705598518252373e-02</internalNodes>
          <leafValues>
            -1.6481465101242065e-01 7.5435882806777954e-01</leafValues></_>
        <_>
          <internalNodes>
            0 -1 115 -1.7801465466618538e-02</internalNodes>
          <leafValues>
            5.9921568632125854e-01 -1.9705834984779358e-01</leafValues></_>
        <_>
          <internalNodes>
            0 -1 111 -3.1152012525126338e-05</internalNodes>
          <leafValues>
            3.8360005617141724e-01 -3.8616353273391724e-01</leafValues></_>
        <_>
          <internalNodes>
            0 -1 121 1.2020364403724670e-02</internalNodes>
          <leafValues>
            -2.2050648927688599e-01 6.0824340581893921e-01</leafValues></_></weakClassifiers></_>
    <!-- stage 11 -->
    <_>
      <maxWeakCount>10</maxWeakCount>
      <stageThreshold>-1.8203796148300171e+00</stageThreshold>
      <weakClassifiers>
        <_>
          <internalNodes>
            0 -1 125 6.5639346837997437e-02</internalNodes>
          <leafValues>
            -8.3951854705810547e-01 -2.6717558503150940e-01</leafValues></_>
        <_>
          <internalNodes>
            0 -1 113 6.3436906202696264e-05</internalNodes>
          <leafValues>
            -6.0543668270111084e-01 -9.9404603242874146e-03</leafValues></_>
        <_>
          <internalNodes>
            0 -1 55 4.0145496313925833e-05</internalNodes>
          <leafValues>
            -3.9815902709960938e-01 2.6393362879753113e-01</leafValues></_>
        <_>
          <internalNodes>
            0 -1 110 -4.9325652420520782e-02</internalNodes>
          <leafValues>
            -9.0415877103805542e-01 1.0726072639226913e-01</leafValues></_>
        <_>
          <internalNodes>
            0 -1 56 -1.2494629118009470e-05</internalNodes>
          <leafValues>
            2.3440182209014893e-01 -4.2378926277160645e-01</leafValues></_>
        <_>
          <internalNodes>
            0 -1 53 4.2486108839511871e-02</internalNodes>
          <leafValues>
            1.1587825417518616e-01 -8.6088651418685913e-01</leafValues></_>
        <_>
          <internalNodes>
            0 -1 36 -1.5902956947684288e-02</internalNodes>
          <leafValues>
            3.9681211113929749e-01 -2.5611966848373413e-01</leafValues></_>
        <_>
          <internalNodes>
            0 -1 96 -6.9860892836004496e-04</internalNodes>
          <leafValues>
            -8.6303138732910156e-01 1.5409323573112488e-01</leafValues></_>
        <_>
          <internalNodes>
            0 -1 52 3.6794044077396393e-02</internalNodes>
          <leafValues>
            -2.0287045836448669e-01 5.7651436328887939e-01</leafValues></_>
        <_>
          <internalNodes>
            0 -1 9 3.0311901355162263e-04</internalNodes>
          <leafValues>
            1.9738550484180450e-01 -5.5996727943420410e-01</leafValues></_></weakClassifiers></_>
    <!-- stage 12 -->
    <_>
      <maxWeakCount>10</maxWeakCount>
      <stageThreshold>-1.7798012495040894e+00</stageThreshold>
      <weakClassifiers>
        <_>
          <internalNodes>
            0 -1 120 2.4038255214691162e-02</internalNodes>
          <leafValues>
            -8.3081573247909546e-01 -3.4814813733100891e-01</leafValues></_>
        <_>
          <internalNodes>
            0 -1 78 1.3365647755563259e-02</internalNodes>
          <leafValues>
            -4.6702814102172852e-01 2.0576874911785126e-01</leafValues></_>
        <_>
          <internalNodes>
            0 -1 116 -8.0576672917231917e-04</internalNodes>
          <leafValues>
            2.3022828996181488e-01 -3.6353135108947754e-01</leafValues></_>
        <_>
          <internalNodes>
            0 -1 134 1.5360992401838303e-03</internalNodes>
          <leafValues>
            -1.8359498679637909e-01 4.8900309205055237e-01</leafValues></_>
        <_>
          <internalNodes>
            0 -1 89 2.4106717319227755e-04</internalNodes>
          <leafValues>
            -2.6580247282981873e-01 3.0618110299110413e-01</leafValues></_>
        <_>
          <internalNodes>
            0 -1 128 -6.8108374252915382e-03</internalNodes>
          <leafValues>
            -9.0199851989746094e-01 1.4429220557212830e-01</leafValues></_>
        <_>
          <internalNodes>
            0 -1 26 5.3792921826243401e-03</internalNodes>
          <leafValues>
            -2.3552437126636505e-01 4.5988830924034119e-01</leafValues></_>
        <_>
          <internalNodes>
            0 -1 98 2.9798327013850212e-03</internalNodes>
          <leafValues>
            1.6526311635971069e-01 -7.7559381723403931e-01</leafValues></_>
        <_>
          <internalNodes>
            0 -1 102 2.2936346940696239e-03</internalNodes>
          <leafValues>
            -3.1167331337928772e-01 3.1382560729980469e-01</leafValues></_>
        <_>
          <internalNodes>
            0 -1 131 -5.0822244957089424e-03</internalNodes>
          <leafValues>
            6.2596428394317627e-01 -1.2679883837699890e-01</leafValues></_></weakClassifiers></_>
    <!-- stage 13 -->
    <_>
      <maxWeakCount>11</maxWeakCount>
      <stageThreshold>-1.4465053081512451e+00</stageThreshold>
      <weakClassifiers>
        <_>
          <internalNodes>
            0 -1 73 -1.4827631413936615e-02</internalNodes>
          <leafValues>
            3.3333334326744080e-01 -8.0327868461608887e-01</leafValues></_>
        <_>
          <internalNodes>
            0 -1 91 3.2395888119935989e-03</internalNodes>
          <leafValues>
            -4.3220022320747375e-01 4.7691735625267029e-01</leafValues></_>
        <_>
          <internalNodes>
            0 -1 18 -9.1891437768936157e-03</internalNodes>
          <leafValues>
            5.2537232637405396e-01 -2.2332656383514404e-01</leafValues></_>
        <_>
          <internalNodes>
            0 -1 20 4.0640546940267086e-03</internalNodes>
          <leafValues>
            -1.1560257524251938e-01 7.6090043783187866e-01</leafValues></_>
        <_>
          <internalNodes>
            0 -1 90 -8.4604583680629730e-03</internalNodes>
          <leafValues>
            2.2781142592430115e-01 -5.1548022031784058e-01</leafValues></_>
        <_>
          <internalNodes>
            0 -1 72 1.2758802622556686e-03</internalNodes>
          <leafValues>
            -2.4798123538494110e-01 4.0413370728492737e-01</leafValues></_>
        <_>
          <internalNodes>
            0 -1 41 -1.5323174186050892e-02</internalNodes>
          <leafValues>
            -8.2435941696166992e-01 1.7677168548107147e-01</leafValues></_>
        <_>
          <internalNodes>
            0 -1 93 4.9697898793965578e-04</internalNodes>
          <leafValues>
            -3.3922478556632996e-01 3.1789821386337280e-01</leafValues></_>
        <_>
          <internalNodes>
            0 -1 80 -9.7824931144714355e-03</internalNodes>
          <leafValues>
            -1. 1.1848391592502594e-01</leafValues></_>
        <_>
          <internalNodes>
            0 -1 54 3.7668808363378048e-03</internalNodes>
          <leafValues>
            -2.0371642708778381e-01 5.5731523036956787e-01</leafValues></_>
        <_>
          <internalNodes>
            0 -1 13 -6.7122019827365875e-03</internalNodes>
          <leafValues>
            4.8693484067916870e-01 -2.0086427032947540e-01</leafValues></_></weakClassifiers></_>
    <!-- stage 14 -->
    <_>
      <maxWeakCount>10</maxWeakCount>
      <stageThreshold>-1.4265656471252441e+00</stageThreshold>
      <weakClassifiers>
        <_>
          <internalNodes>
            0 -1 51 -8.7098762392997742e-02</internalNodes>
          <leafValues>
            -3.2110092043876648e-01 -8.2139354944229126e-01</leafValues></_>
        <_>
          <internalNodes>
            0 -1 129 -2.3059774190187454e-02</internalNodes>
          <leafValues>
            1.4519023895263672e-01 -4.5559489727020264e-01</leafValues></_>
        <_>
          <internalNodes>
            0 -1 44 1.0712096095085144e-01</internalNodes>
          <leafValues>
            7.6016984879970551e-02 -9.3984460830688477e-01</leafValues></_>
        <_>
          <internalNodes>
            0 -1 62 2.9024864488746971e-05</internalNodes>
          <leafValues>
            -2.9590216279029846e-01 2.6050063967704773e-01</leafValues></_>
        <_>
          <internalNodes>
            0 -1 126 5.1388990134000778e-02</internalNodes>
          <leafValues>
            -1.6225388646125793e-01 5.3270596265792847e-01</leafValues></_>
        <_>
          <internalNodes>
            0 -1 38 -1.4144818997010589e-03</internalNodes>
          <leafValues>
            -6.9360363483428955e-01 1.2081166356801987e-01</leafValues></_>
        <_>
          <internalNodes>
            0 -1 114 2.5811321102082729e-03</internalNodes>
          <leafValues>
            1.1322075128555298e-01 -6.9319444894790649e-01</leafValues></_>
        <_>
          <internalNodes>
            0 -1 118 -1.2942921370267868e-02</internalNodes>
          <leafValues>
            4.7707092761993408e-01 -1.8240119516849518e-01</leafValues></_>
        <_>
          <internalNodes>
            0 -1 79 2.1534715779125690e-03</internalNodes>
          <leafValues>
            -2.3513504862785339e-01 4.2117393016815186e-01</leafValues></_>
        <_>
          <internalNodes>
            0 -1 140 3.5507243592292070e-04</internalNodes>
          <leafValues>
            1.6578550636768341e-01 -5.7559835910797119e-01</leafValues></_></weakClassifiers></_>
    <!-- stage 15 -->
    <_>
      <maxWeakCount>11</maxWeakCount>
      <stageThreshold>-1.5309125185012817e+00</stageThreshold>
      <weakClassifiers>
        <_>
          <internalNodes>
            0 -1 81 -9.3195103108882904e-03</internalNodes>
          <leafValues>
            -1.8644067645072937e-01 -8.0542564392089844e-01</leafValues></_>
        <_>
          <internalNodes>
            0 -1 106 -4.9054063856601715e-03</internalNodes>
          <leafValues>
            2.2695758938789368e-01 -4.3256908655166626e-01</leafValues></_>
        <_>
          <internalNodes>
            0 -1 60 -1.8769374582916498e-03</internalNodes>
          <leafValues>
            2.8682214021682739e-01 -3.1803208589553833e-01</leafValues></_>
        <_>
          <internalNodes>
            0 -1 94 2.0722856745123863e-02</internalNodes>
          <leafValues>
            1.0135197639465332e-01 -8.2059472799301147e-01</leafValues></_>
        <_>
          <internalNodes>
            0 -1 108 1.6067899196059443e-05</internalNodes>
          <leafValues>
            -3.3621922135353088e-01 2.8244802355766296e-01</leafValues></_>
        <_>
          <internalNodes>
            0 -1 34 -5.2082911133766174e-03</internalNodes>
          <leafValues>
            5.4146170616149902e-01 -1.6649471223354340e-01</leafValues></_>
        <_>
          <internalNodes>
            0 -1 0 8.2243338692933321e-04</internalNodes>
          <leafValues>
            2.1512976288795471e-01 -4.1915601491928101e-01</leafValues></_>
        <_>
          <internalNodes>
            0 -1 14 -5.5706663988530636e-04</internalNodes>
          <leafValues>
            -6.5573161840438843e-01 1.5347425639629364e-01</leafValues></_>
        <_>
          <internalNodes>
            0 -1 105 -1.8513903021812439e-02</internalNodes>
          <leafValues>
            -9.1501677036285400e-01 7.9562008380889893e-02</leafValues></_>
        <_>
          <internalNodes>
            0 -1 139 1.2286296114325523e-02</internalNodes>
          <leafValues>
            7.4787385761737823e-02 -8.4367460012435913e-01</leafValues></_>
        <_>
          <internalNodes>
            0 -1 58 -3.0120009556412697e-02</internalNodes>
          <leafValues>
            -6.7672741413116455e-01 1.0787444561719894e-01</leafValues></_></weakClassifiers></_>
    <!-- stage 16 -->
    <_>
      <maxWeakCount>7</maxWeakCount>
      <stageThreshold>-1.4348173141479492e+00</stageThreshold>
      <weakClassifiers>
        <_>
          <internalNodes>
            0 -1 31 7.2638266719877720e-03</internalNodes>
          <leafValues>
            -8.2195848226547241e-01 -3.5042735934257507e-01</leafValues></_>
        <_>
          <internalNodes>
            0 -1 7 -1.9237322732806206e-02</internalNodes>
          <leafValues>
            7.0364266633987427e-02 -5.2216237783432007e-01</leafValues></_>
        <_>
          <internalNodes>
            0 -1 69 2.1039269864559174e-02</internalNodes>
          <leafValues>
            -2.2699891030788422e-01 3.8311368227005005e-01</leafValues></_>
        <_>
          <internalNodes>
            0 -1 61 -7.3986813426017761e-02</internalNodes>
          <leafValues>
            -7.6538634300231934e-01 1.1414970457553864e-01</leafValues></_>
        <_>
          <internalNodes>
            0 -1 137 9.0884231030941010e-04</internalNodes>
          <leafValues>
            1.9215358793735504e-01 -5.2151960134506226e-01</leafValues></_>
        <_>
          <internalNodes>
            0 -1 16 -1.8536150455474854e-02</internalNodes>
          <leafValues>
            3.2828438282012939e-01 -2.6656681299209595e-01</leafValues></_>
        <_>
          <internalNodes>
            0 -1 50 3.0568830668926239e-02</internalNodes>
          <leafValues>
            -1.8427015841007233e-01 5.0457096099853516e-01</leafValues></_></weakClassifiers></_></stages>
  <features>
    <_>
      <rects>
        <_>
          0 0 6 2 -1.</_>
        <_>
          3 0 3 2 2.</_></rects>
      <tilted>0</tilted></_>
    <_>
      <rects>
        <_>
          0 1 24 3 -1.</_>
        <_>
          8 1 8 3 3.</_></rects>
      <tilted>0</tilted></_>
    <_>
      <rects>
        <_>
          0 2 8 11 -1.</_>
        <_>
          4 2 4 11 2.</_></rects>
      <tilted>0</tilted></_>
    <_>
      <rects>
        <_>
          0 2 12 22 -1.</_>
        <_>
          4 2 4 22 3.</_></rects>
      <tilted>0</tilted></_>
    <_>
      <rects>
        <_>
          0 3 12 6 -1.</_>
        <_>
          4 3 4 6 3.</_></rects>
      <tilted>0</tilted></_>
    <_>
      <rects>
        <_>
          0 4 9 16 -1.</_>
        <_>
          3 4 3 16 3.</_></rects>
      <tilted>0</tilted></_>
    <_>
      <rects>
        <_>
          0 7 6 8 -1.</_>
        <_>
          2 7 2 8 3.</_></rects>
      <tilted>0</tilted></_>
    <_>
      <rects>
        <_>
          0 9 22 6 -1.</_>
        <_>
          0 11 22 2 3.</_></rects>
      <tilted>0</tilted></_>
    <_>
      <rects>
        <_>
          0 12 6 2 -1.</_>
        <_>
          0 13 6 1 2.</_></rects>
      <tilted>0</tilted></_>
    <_>
      <rects>
        <_>
          0 13 2 2 -1.</_>
        <_>
          1 13 1 2 2.</_></rects>
      <tilted>0</tilted></_>
    <_>
      <rects>
        <_>
          0 18 2 4 -1.</_>
        <_>
          1 18 1 4 2.</_></rects>
      <tilted>0</tilted></_>
    <_>
      <rects>
        <_>
          0 21 24 1 -1.</_>
        <_>
          8 21 8 1 3.</_></rects>
      <tilted>0</tilted></_>
    <_>
      <rects>
        <_>
          1 1 2 1 -1.</_>
        <_>
          2 1 1 1 2.</_></rects>
      <tilted>0</tilted></_>
    <_>
      <rects>
        <_>
          1 10 11 3 -1.</_>
        <_>
          1 11 11 1 3.</_></rects>
      <tilted>0</tilted></_>
    <_>
      <rects>
        <_>
          2 0 2 1 -1.</_>
        <_>
          3 0 1 1 2.</_></rects>
      <tilted>0</tilted></_>
    <_>
      <rects>
        <_>
          2 0 10 8 -1.</_>
        <_>
          2 0 5 4 2.</_>
        <_>
          7 4 5 4 2.</_></rects>
      <tilted>0</tilted></_>
    <_>
      <rects>
        <_>
          2 0 6 8 -1.</_>
        <_>
          2 4 6 4 2.</_></rects>
      <tilted>0</tilted></_>
    <_>
      <rects>
        <_>
          2 6 4 18 -1.</_>
        <_>
          4 6 2 18 2.</_></rects>
      <tilted>0</tilted></_>
    <_>
      <rects>
        <_>
          2 8 3 9 -1.</_>
        <_>
          3 8 1 9 3.</_></rects>
      <tilted>0</tilted></_>
    <_>
      <rects>
        <_>
          2 8 6 11 -1.</_>
        <_>
          5 8 3 11 2.</_></rects>
      <tilted>0</tilted></_>
    <_>
      <rects>
        <_>
          2 9 3 3 -1.</_>
        <_>
          3 9 1 3 3.</_></rects>
      <tilted>0</tilted></_>
    <_>
      <rects>
        <_>
          2 9 3 4 -1.</_>
        <_>
          3 9 1 4 3.</_></rects>
      <tilted>0</tilted></_>
    <_>
      <rects>
        <_>
          2 9 4 11 -1.</_>
        <_>
          4 9 2 11 2.</_></rects>
      <tilted>0</tilted></_>
    <_>
      <rects>
        <_>
          2 9 6 10 -1.</_>
        <_>
          5 9 3 10 2.</_></rects>
      <tilted>0</tilted></_>
    <_>
      <rects>
        <_>
          2 13 6 3 -1.</_>
        <_>
          2 14 6 1 3.</_></rects>
      <tilted>0</tilted></_>
    <_>
      <rects>
        <_>
          2 14 9 3 -1.</_>
        <_>
          5 14 3 3 3.</_></rects>
      <tilted>0</tilted></_>
    <_>
      <rects>
        <_>
          3 0 2 12 -1.</_>
        <_>
          3 0 1 6 2.</_>
        <_>
          4 6 1 6 2.</_></rects>
      <tilted>0</tilted></_>
    <_>
      <rects>
        <_>
          3 0 7 4 -1.</_>
        <_>
          3 2 7 2 2.</_></rects>
      <tilted>0</tilted></_>
    <_>
      <rects>
        <_>
          3 1 18 1 -1.</_>
        <_>
          9 1 6 1 3.</_></rects>
      <tilted>0</tilted></_>
    <_>
      <rects>
        <_>
          3 7 6 12 -1.</_>
        <_>
          3 13 6 6 2.</_></rects>
      <tilted>0</tilted></_>
    <_>
      <rects>
        <_>
          3 8 2 6 -1.</_>
        <_>
          4 8 1 6 2.</_></rects>
      <tilted>0</tilted></_>
    <_>
      <rects>
        <_>
          3 8 3 6 -1.</_>
        <_>
          4 8 1 6 3.</_></rects>
      <tilted>0</tilted></_>
    <_>
      <rects>
        <_>
          3 12 2 3 -1.</_>
        <_>
          3 13 2 1 3.</_></rects>
      <tilted>0</tilted></_>
    <_>
      <rects>
        <_>
          3 12 14 3 -1.</_>
        <_>
          3 13 14 1 3.</_></rects>
      <tilted>0</tilted></_>
    <_>
      <rects>
        <_>
          3 13 3 4 -1.</_>
        <_>
          4 13 1 4 3.</_></rects>
      <tilted>0</tilted></_>
    <_>
      <rects>
        <_>
          3 18 6 2 -1.</_>
        <_>
          6 18 3 2 2.</_></rects>
      <tilted>0</tilted></_>
    <_>
      <rects>
        <_>
          4 0 8 6 -1.</_>
        <_>
          4 3 8 3 2.</_></rects>
      <tilted>0</tilted></_>
    <_>
      <rects>
        <_>
          4 3 4 6 -1.</_>
        <_>
          4 3 2 3 2.</_>
        <_>
          6 6 2 3 2.</_></rects>
      <tilted>0</tilted></_>
    <_>
      <rects>
        <_>
          4 9 1 4 -1.</_>
        <_>
          4 11 1 2 2.</_></rects>
      <tilted>0</tilted></_>
    <_>
      <rects>
        <_>
          4 12 16 3 -1.</_>
        <_>
          4 13 16 1 3.</_></rects>
      <tilted>0</tilted></_>
    <_>
      <rects>
        <_>
          4 12 16 10 -1.</_>
        <_>
          4 17 16 5 2.</_></rects>
      <tilted>0</tilted></_>
    <_>
      <rects>
        <_>
          4 17 16 4 -1.</_>
        <_>
          4 17 8 2 2.</_>
        <_>
          12 19 8 2 2.</_></rects>
      <tilted>0</tilted></_>
    <_>
      <rects>
        <_>
          5 0 16 4 -1.</_>
        <_>
          5 2 16 2 2.</_></rects>
      <tilted>0</tilted></_>
    <_>
      <rects>
        <_>
          5 8 8 6 -1.</_>
        <_>
          5 10 8 2 3.</_></rects>
      <tilted>0</tilted></_>
    <_>
      <rects>
        <_>
          5 9 8 12 -1.</_>
        <_>
          5 13 8 4 3.</_></rects>
      <tilted>0</tilted></_>
    <_>
      <rects>
        <_>
          5 10 14 8 -1.</_>
        <_>
          5 10 7 4 2.</_>
        <_>
          12 14 7 4 2.</_></rects>
      <tilted>0</tilted></_>
    <_>
      <rects>
        <_>
          5 10 11 9 -1.</_>
        <_>
          5 13 11 3 3.</_></rects>
      <tilted>0</tilted></_>
    <_>
      <rects>
        <_>
          5 15 6 8 -1.</_>
        <_>
          5 15 3 4 2.</_>
        <_>
          8 19 3 4 2.</_></rects>
      <tilted>0</tilted></_>
    <_>
      <rects>
        <_>
          5 20 13 4 -1.</_>
        <_>
          5 22 13 2 2.</_></rects>
      <tilted>0</tilted></_>
    <_>
      <rects>
        <_>
          5 21 14 2 -1.</_>
        <_>
          5 22 14 1 2.</_></rects>
      <tilted>0</tilted></_>
    <_>
      <rects>
        <_>
          6 0 6 9 -1.</_>
        <_>
          6 3 6 3 3.</_></rects>
      <tilted>0</tilted></_>
    <_>
      <rects>
        <_>
          6 0 11 9 -1.</_>
        <_>
          6 3 11 3 3.</_></rects>
      <tilted>0</tilted></_>
    <_>
      <rects>
        <_>
          6 1 11 4 -1.</_>
        <_>
          6 3 11 2 2.</_></rects>
      <tilted>0</tilted></_>
    <_>
      <rects>
        <_>
          6 10 10 14 -1.</_>
        <_>
          6 10 5 7 2.</_>
        <_>
          11 17 5 7 2.</_></rects>
      <tilted>0</tilted></_>
    <_>
      <rects>
        <_>
          6 10 9 3 -1.</_>
        <_>
          6 11 9 1 3.</_></rects>
      <tilted>0</tilted></_>
    <_>
      <rects>
        <_>
          6 12 1 3 -1.</_>
        <_>
          6 13 1 1 3.</_></rects>
      <tilted>0</tilted></_>
    <_>
      <rects>
        <_>
          6 16 2 2 -1.</_>
        <_>
          6 17 2 1 2.</_></rects>
      <tilted>0</tilted></_>
    <_>
      <rects>
        <_>
          7 1 8 12 -1.</_>
        <_>
          7 5 8 4 3.</_></rects>
      <tilted>0</tilted></_>
    <_>
      <rects>
        <_>
          7 8 12 12 -1.</_>
        <_>
          7 8 6 6 2.</_>
        <_>
          13 14 6 6 2.</_></rects>
      <tilted>0</tilted></_>
    <_>
      <rects>
        <_>
          7 10 11 9 -1.</_>
        <_>
          7 13 11 3 3.</_></rects>
      <tilted>0</tilted></_>
    <_>
      <rects>
        <_>
          7 11 6 4 -1.</_>
        <_>
          9 11 2 4 3.</_></rects>
      <tilted>0</tilted></_>
    <_>
      <rects>
        <_>
          7 12 15 12 -1.</_>
        <_>
          7 16 15 4 3.</_></rects>
      <tilted>0</tilted></_>
    <_>
      <rects>
        <_>
          7 14 1 3 -1.</_>
        <_>
          7 15 1 1 3.</_></rects>
      <tilted>0</tilted></_>
    <_>
      <rects>
        <_>
          8 0 3 8 -1.</_>
        <_>
          9 0 1 8 3.</_></rects>
      <tilted>0</tilted></_>
    <_>
      <rects>
        <_>
          8 0 10 9 -1.</_>
        <_>
          8 3 10 3 3.</_></rects>
      <tilted>0</tilted></_>
    <_>
      <rects>
        <_>
          8 2 10 8 -1.</_>
        <_>
          8 6 10 4 2.</_></rects>
      <tilted>0</tilted></_>
    <_>
      <rects>
        <_>
          8 7 10 4 -1.</_>
        <_>
          8 9 10 2 2.</_></rects>
      <tilted>0</tilted></_>
    <_>
      <rects>
        <_>
          8 8 7 4 -1.</_>
        <_>
          8 10 7 2 2.</_></rects>
      <tilted>0</tilted></_>
    <_>
      <rects>
        <_>
          8 9 10 6 -1.</_>
        <_>
          8 11 10 2 3.</_></rects>
      <tilted>0</tilted></_>
    <_>
      <rects>
        <_>
          8 10 10 6 -1.</_>
        <_>
          8 12 10 2 3.</_></rects>
      <tilted>0</tilted></_>
    <_>
      <rects>
        <_>
          8 13 8 3 -1.</_>
        <_>
          8 14 8 1 3.</_></rects>
      <tilted>0</tilted></_>
    <_>
      <rects>
        <_>
          8 13 9 3 -1.</_>
        <_>
          8 14 9 1 3.</_></rects>
      <tilted>0</tilted></_>
    <_>
      <rects>
        <_>
          8 18 4 3 -1.</_>
        <_>
          8 19 4 1 3.</_></rects>
      <tilted>0</tilted></_>
    <_>
      <rects>
        <_>
          9 0 6 2 -1.</_>
        <_>
          9 1 6 1 2.</_></rects>
      <tilted>0</tilted></_>
    <_>
      <rects>
        <_>
          9 2 3 2 -1.</_>
        <_>
          10 2 1 2 3.</_></rects>
      <tilted>0</tilted></_>
    <_>
      <rects>
        <_>
          9 2 3 3 -1.</_>
        <_>
          10 2 1 3 3.</_></rects>
      <tilted>0</tilted></_>
    <_>
      <rects>
        <_>
          9 4 6 10 -1.</_>
        <_>
          11 4 2 10 3.</_></rects>
      <tilted>0</tilted></_>
    <_>
      <rects>
        <_>
          9 6 14 17 -1.</_>
        <_>
          16 6 7 17 2.</_></rects>
      <tilted>0</tilted></_>
    <_>
      <rects>
        <_>
          9 9 6 5 -1.</_>
        <_>
          11 9 2 5 3.</_></rects>
      <tilted>0</tilted></_>
    <_>
      <rects>
        <_>
          9 11 7 3 -1.</_>
        <_>
          9 12 7 1 3.</_></rects>
      <tilted>0</tilted></_>
    <_>
      <rects>
        <_>
          9 14 4 6 -1.</_>
        <_>
          9 14 2 3 2.</_>
        <_>
          11 17 2 3 2.</_></rects>
      <tilted>0</tilted></_>
    <_>
      <rects>
        <_>
          9 15 5 3 -1.</_>
        <_>
          9 16 5 1 3.</_></rects>
      <tilted>0</tilted></_>
    <_>
      <rects>
        <_>
          10 0 3 4 -1.</_>
        <_>
          11 0 1 4 3.</_></rects>
      <tilted>0</tilted></_>
    <_>
      <rects>
        <_>
          10 1 3 8 -1.</_>
        <_>
          10 5 3 4 2.</_></rects>
      <tilted>0</tilted></_>
    <_>
      <rects>
        <_>
          10 1 12 8 -1.</_>
        <_>
          10 1 6 4 2.</_>
        <_>
          16 5 6 4 2.</_></rects>
      <tilted>0</tilted></_>
    <_>
      <rects>
        <_>
          10 1 14 3 -1.</_>
        <_>
          17 1 7 3 2.</_></rects>
      <tilted>0</tilted></_>
    <_>
      <rects>
        <_>
          10 3 3 3 -1.</_>
        <_>
          11 3 1 3 3.</_></rects>
      <tilted>0</tilted></_>
    <_>
      <rects>
        <_>
          10 6 6 16 -1.</_>
        <_>
          10 14 6 8 2.</_></rects>
      <tilted>0</tilted></_>
    <_>
      <rects>
        <_>
          10 10 4 14 -1.</_>
        <_>
          10 17 4 7 2.</_></rects>
      <tilted>0</tilted></_>
    <_>
      <rects>
        <_>
          10 14 1 3 -1.</_>
        <_>
          10 15 1 1 3.</_></rects>
      <tilted>0</tilted></_>
    <_>
      <rects>
        <_>
          10 14 9 6 -1.</_>
        <_>
          10 17 9 3 2.</_></rects>
      <tilted>0</tilted></_>
    <_>
      <rects>
        <_>
          10 16 3 3 -1.</_>
        <_>
          10 17 3 1 3.</_></rects>
      <tilted>0</tilted></_>
    <_>
      <rects>
        <_>
          10 18 4 6 -1.</_>
        <_>
          10 20 4 2 3.</_></rects>
      <tilted>0</tilted></_>
    <_>
      <rects>
        <_>
          10 20 1 3 -1.</_>
        <_>
          10 21 1 1 3.</_></rects>
      <tilted>0</tilted></_>
    <_>
      <rects>
        <_>
          11 1 6 9 -1.</_>
        <_>
          13 1 2 9 3.</_></rects>
      <tilted>0</tilted></_>
    <_>
      <rects>
        <_>
          11 1 6 9 -1.</_>
        <_>
          11 4 6 3 3.</_></rects>
      <tilted>0</tilted></_>
    <_>
      <rects>
        <_>
          11 5 3 1 -1.</_>
        <_>
          12 5 1 1 3.</_></rects>
      <tilted>0</tilted></_>
    <_>
      <rects>
        <_>
          11 17 2 2 -1.</_>
        <_>
          11 17 1 1 2.</_>
        <_>
          12 18 1 1 2.</_></rects>
      <tilted>0</tilted></_>
    <_>
      <rects>
        <_>
          11 19 3 5 -1.</_>
        <_>
          12 19 1 5 3.</_></rects>
      <tilted>0</tilted></_>
    <_>
      <rects>
        <_>
          11 19 6 2 -1.</_>
        <_>
          11 19 3 1 2.</_>
        <_>
          14 20 3 1 2.</_></rects>
      <tilted>0</tilted></_>
    <_>
      <rects>
        <_>
          11 20 2 3 -1.</_>
        <_>
          11 21 2 1 3.</_></rects>
      <tilted>0</tilted></_>
    <_>
      <rects>
        <_>
          11 21 3 2 -1.</_>
        <_>
          12 21 1 2 3.</_></rects>
      <tilted>0</tilted></_>
    <_>
      <rects>
        <_>
          11 21 8 2 -1.</_>
        <_>
          11 21 4 1 2.</_>
        <_>
          15 22 4 1 2.</_></rects>
      <tilted>0</tilted></_>
    <_>
      <rects>
        <_>
          11 21 12 1 -1.</_>
        <_>
          17 21 6 1 2.</_></rects>
      <tilted>0</tilted></_>
    <_>
      <rects>
        <_>
          12 0 3 8 -1.</_>
        <_>
          13 0 1 8 3.</_></rects>
      <tilted>0</tilted></_>
    <_>
      <rects>
        <_>
          12 0 6 6 -1.</_>
        <_>
          14 0 2 6 3.</_></rects>
      <tilted>0</tilted></_>
    <_>
      <rects>
        <_>
          12 0 5 2 -1.</_>
        <_>
          12 1 5 1 2.</_></rects>
      <tilted>0</tilted></_>
    <_>
      <rects>
        <_>
          12 1 8 8 -1.</_>
        <_>
          12 1 4 4 2.</_>
        <_>
          16 5 4 4 2.</_></rects>
      <tilted>0</tilted></_>
    <_>
      <rects>
        <_>
          12 4 3 2 -1.</_>
        <_>
          13 4 1 2 3.</_></rects>
      <tilted>0</tilted></_>
    <_>
      <rects>
        <_>
          12 4 12 8 -1.</_>
        <_>
          16 4 4 8 3.</_></rects>
      <tilted>0</tilted></_>
    <_>
      <rects>
        <_>
          12 8 4 14 -1.</_>
        <_>
          12 15 4 7 2.</_></rects>
      <tilted>0</tilted></_>
    <_>
      <rects>
        <_>
          12 19 2 2 -1.</_>
        <_>
          12 19 1 1 2.</_>
        <_>
          13 20 1 1 2.</_></rects>
      <tilted>0</tilted></_>
    <_>
      <rects>
        <_>
          12 20 1 4 -1.</_>
        <_>
          12 22 1 2 2.</_></rects>
      <tilted>0</tilted></_>
    <_>
      <rects>
        <_>
          13 20 1 3 -1.</_>
        <_>
          13 21 1 1 3.</_></rects>
      <tilted>0</tilted></_>
    <_>
      <rects>
        <_>
          14 3 3 6 -1.</_>
        <_>
          15 3 1 6 3.</_></rects>
      <tilted>0</tilted></_>
    <_>
      <rects>
        <_>
          14 3 6 8 -1.</_>
        <_>
          14 3 3 4 2.</_>
        <_>
          17 7 3 4 2.</_></rects>
      <tilted>0</tilted></_>
    <_>
      <rects>
        <_>
          14 4 4 3 -1.</_>
        <_>
          16 4 2 3 2.</_></rects>
      <tilted>0</tilted></_>
    <_>
      <rects>
        <_>
          14 7 9 4 -1.</_>
        <_>
          17 7 3 4 3.</_></rects>
      <tilted>0</tilted></_>
    <_>
      <rects>
        <_>
          14 8 3 9 -1.</_>
        <_>
          14 11 3 3 3.</_></rects>
      <tilted>0</tilted></_>
    <_>
      <rects>
        <_>
          14 14 10 10 -1.</_>
        <_>
          14 14 5 5 2.</_>
        <_>
          19 19 5 5 2.</_></rects>
      <tilted>0</tilted></_>
    <_>
      <rects>
        <_>
          15 4 8 3 -1.</_>
        <_>
          19 4 4 3 2.</_></rects>
      <tilted>0</tilted></_>
    <_>
      <rects>
        <_>
          15 8 6 8 -1.</_>
        <_>
          17 8 2 8 3.</_></rects>
      <tilted>0</tilted></_>
    <_>
      <rects>
        <_>
          15 11 6 8 -1.</_>
        <_>
          18 11 3 8 2.</_></rects>
      <tilted>0</tilted></_>
    <_>
      <rects>
        <_>
          16 1 8 12 -1.</_>
        <_>
          20 1 4 12 2.</_></rects>
      <tilted>0</tilted></_>
    <_>
      <rects>
        <_>
          16 3 6 15 -1.</_>
        <_>
          18 3 2 15 3.</_></rects>
      <tilted>0</tilted></_>
    <_>
      <rects>
        <_>
          16 4 8 13 -1.</_>
        <_>
          20 4 4 13 2.</_></rects>
      <tilted>0</tilted></_>
    <_>
      <rects>
        <_>
          16 8 6 16 -1.</_>
        <_>
          19 8 3 16 2.</_></rects>
      <tilted>0</tilted></_>
    <_>
      <rects>
        <_>
          16 12 4 12 -1.</_>
        <_>
          16 12 2 6 2.</_>
        <_>
          18 18 2 6 2.</_></rects>
      <tilted>0</tilted></_>
    <_>
      <rects>
        <_>
          16 14 2 4 -1.</_>
        <_>
          16 16 2 2 2.</_></rects>
      <tilted>0</tilted></_>
    <_>
      <rects>
        <_>
          17 5 6 10 -1.</_>
        <_>
          19 5 2 10 3.</_></rects>
      <tilted>0</tilted></_>
    <_>
      <rects>
        <_>
          17 15 1 2 -1.</_>
        <_>
          17 16 1 1 2.</_></rects>
      <tilted>0</tilted></_>
    <_>
      <rects>
        <_>
          18 1 2 8 -1.</_>
        <_>
          18 1 1 4 2.</_>
        <_>
          19 5 1 4 2.</_></rects>
      <tilted>0</tilted></_>
    <_>
      <rects>
        <_>
          18 5 6 19 -1.</_>
        <_>
          20 5 2 19 3.</_></rects>
      <tilted>0</tilted></_>
    <_>
      <rects>
        <_>
          18 8 3 6 -1.</_>
        <_>
          19 8 1 6 3.</_></rects>
      <tilted>0</tilted></_>
    <_>
      <rects>
        <_>
          18 10 3 2 -1.</_>
        <_>
          19 10 1 2 3.</_></rects>
      <tilted>0</tilted></_>
    <_>
      <rects>
        <_>
          19 10 5 2 -1.</_>
        <_>
          19 11 5 1 2.</_></rects>
      <tilted>0</tilted></_>
    <_>
      <rects>
        <_>
          19 14 3 2 -1.</_>
        <_>
          19 15 3 1 2.</_></rects>
      <tilted>0</tilted></_>
    <_>
      <rects>
        <_>
          20 6 3 3 -1.</_>
        <_>
          20 7 3 1 3.</_></rects>
      <tilted>0</tilted></_>
    <_>
      <rects>
        <_>
          21 3 3 3 -1.</_>
        <_>
          21 4 3 1 3.</_></rects>
      <tilted>0</tilted></_>
    <_>
      <rects>
        <_>
          22 8 1 15 -1.</_>
        <_>
          22 13 1 5 3.</_></rects>
      <tilted>0</tilted></_>
    <_>
      <rects>
        <_>
          22 8 2 3 -1.</_>
        <_>
          22 9 2 1 3.</_></rects>
      <tilted>0</tilted></_>
    <_>
      <rects>
        <_>
          23 4 1 2 -1.</_>
        <_>
          23 5 1 1 2.</_></rects>
      <tilted>0</tilted></_></features></cascade>
</opencv_storage>
